<?xml version="1.0"?>
<opencv_storage>
<myfacedetector type_id="opencv-haar-classifier">
  <size>
    80 40</size>
  <stages>
    <_>
      <trees>
        <_>
          <_>
            <feature>
              <rects>
                <_>
                  7 0 39 4 -1.</_>
                <_>
                  7 2 39 2 2.</_></rects>
              <tilted>0</tilted></feature>
            <threshold>-0.0134416101500392</threshold>
            <left_val>0.9690188765525818</left_val>
            <right_val>-0.9095317125320435</right_val></_></_>
        <_>
          <_>
            <feature>
              <rects>
                <_>
                  25 0 39 38 -1.</_>
                <_>
                  25 19 39 19 2.</_></rects>
              <tilted>0</tilted></feature>
            <threshold>-0.1921028941869736</threshold>
            <left_val>0.8662490844726563</left_val>
            <right_val>-0.9999877810478210</right_val></_></_></trees>
      <stage_threshold>-0.0432825684547424</stage_threshold>
      <parent>-1</parent>
      <next>-1</next></_>
    <_>
      <trees>
        <_>
          <_>
            <feature>
              <rects>
                <_>
                  0 27 8 13 -1.</_>
                <_>
                  4 27 4 13 2.</_></rects>
              <tilted>0</tilted></feature>
            <threshold>-8.0865370109677315e-003</threshold>
            <left_val>0.9019607901573181</left_val>
            <right_val>-0.9387757182121277</right_val></_></_>
        <_>
          <_>
            <feature>
              <rects>
                <_>
                  35 6 34 13 -1.</_>
                <_>
                  35 6 17 13 2.</_></rects>
              <tilted>0</tilted></feature>
            <threshold>-7.8784208744764328e-004</threshold>
            <left_val>0.4185043871402741</left_val>
            <right_val>-0.8923738002777100</right_val></_></_></trees>
      <stage_threshold>-0.5202713012695313</stage_threshold>
      <parent>0</parent>
      <next>-1</next></_>
    <_>
      <trees>
        <_>
          <_>
            <feature>
              <rects>
                <_>
                  0 17 12 23 -1.</_>
                <_>
                  6 17 6 23 2.</_></rects>
              <tilted>0</tilted></feature>
            <threshold>-0.0200962107628584</threshold>
            <left_val>0.8923327922821045</left_val>
            <right_val>-0.9318574070930481</right_val></_></_>
        <_>
          <_>
            <feature>
              <rects>
                <_>
                  2 2 78 36 -1.</_>
                <_>
                  28 2 26 36 3.</_></rects>
              <tilted>0</tilted></feature>
            <threshold>-0.1963082998991013</threshold>
            <left_val>0.7870913743972778</left_val>
            <right_val>-0.9939464926719666</right_val></_></_></trees>
      <stage_threshold>-0.1447660028934479</stage_threshold>
      <parent>1</parent>
      <next>-1</next></_>
    <_>
      <trees>
        <_>
          <_>
            <feature>
              <rects>
                <_>
                  24 0 31 12 -1.</_>
                <_>
                  24 3 31 6 2.</_></rects>
              <tilted>0</tilted></feature>
            <threshold>-0.0376950018107891</threshold>
            <left_val>0.9562044143676758</left_val>
            <right_val>-0.8036813735961914</right_val></_></_>
        <_>
          <_>
            <feature>
              <rects>
                <_>
                  24 25 40 8 -1.</_>
                <_>
                  24 29 40 4 2.</_></rects>
              <tilted>0</tilted></feature>
            <threshold>-0.0169261191040277</threshold>
            <left_val>0.7152221202850342</left_val>
            <right_val>-0.9253997206687927</right_val></_></_></trees>
      <stage_threshold>-0.0884593725204468</stage_threshold>
      <parent>2</parent>
      <next>-1</next></_>
    <_>
      <trees>
        <_>
          <_>
            <feature>
              <rects>
                <_>
                  0 2 2 37 -1.</_>
                <_>
                  1 2 1 37 2.</_></rects>
              <tilted>0</tilted></feature>
            <threshold>-1.5320499660447240e-003</threshold>
            <left_val>0.8140293955802918</left_val>
            <right_val>-0.8500853776931763</right_val></_></_>
        <_>
          <_>
            <feature>
              <rects>
                <_>
                  6 39 74 1 -1.</_>
                <_>
                  6 39 37 1 2.</_></rects>
              <tilted>0</tilted></feature>
            <threshold>9.2593645676970482e-003</threshold>
            <left_val>-0.6771442294120789</left_val>
            <right_val>0.7774845957756043</right_val></_></_>
        <_>
          <_>
            <feature>
              <rects>
                <_>
                  10 19 14 10 -1.</_>
                <_>
                  10 24 14 5 2.</_></rects>
              <tilted>0</tilted></feature>
            <threshold>-5.0324038602411747e-003</threshold>
            <left_val>0.6640948057174683</left_val>
            <right_val>-1.0000129938125610</right_val></_></_></trees>
      <stage_threshold>-0.8631346821784973</stage_threshold>
      <parent>3</parent>
      <next>-1</next></_>
    <_>
      <trees>
        <_>
          <_>
            <feature>
              <rects>
                <_>
                  0 39 72 1 -1.</_>
                <_>
                  36 39 36 1 2.</_></rects>
              <tilted>0</tilted></feature>
            <threshold>-0.0123514197766781</threshold>
            <left_val>0.8864027857780457</left_val>
            <right_val>-0.8319873213768005</right_val></_></_>
        <_>
          <_>
            <feature>
              <rects>
                <_>
                  74 33 6 1 -1.</_>
                <_>
                  74 33 3 1 2.</_></rects>
              <tilted>1</tilted></feature>
            <threshold>-2.6442669332027435e-003</threshold>
            <left_val>0.8474059104919434</left_val>
            <right_val>-0.0920230373740196</right_val></_></_>
        <_>
          <_>
            <feature>
              <rects>
                <_>
                  30 0 2 30 -1.</_>
                <_>
                  30 0 1 30 2.</_></rects>
              <tilted>1</tilted></feature>
            <threshold>1.8566929502412677e-003</threshold>
            <left_val>-0.9478846192359924</left_val>
            <right_val>0.6129040718078613</right_val></_></_></trees>
      <stage_threshold>-0.3111062049865723</stage_threshold>
      <parent>4</parent>
      <next>-1</next></_>
    <_>
      <trees>
        <_>
          <_>
            <feature>
              <rects>
                <_>
                  25 6 30 16 -1.</_>
                <_>
                  35 6 10 16 3.</_></rects>
              <tilted>0</tilted></feature>
            <threshold>-0.0126593401655555</threshold>
            <left_val>0.6597509980201721</left_val>
            <right_val>-1.</right_val></_></_></trees>
      <stage_threshold>0.6597509980201721</stage_threshold>
      <parent>5</parent>
      <next>-1</next></_></stages></myfacedetector>
</opencv_storage>
